<?xml version="1.0"?>
<opencv_storage>
<cascade>
  <stageType>BOOST</stageType>
  <featureType>HAAR</featureType>
  <height>24</height>
  <width>24</width>
  <stageParams>
    <boostType>GAB</boostType>
    <minHitRate>9.9500000476837158e-01</minHitRate>
    <maxFalseAlarm>5.0000000000000000e-01</maxFalseAlarm>
    <weightTrimRate>9.4999999999999996e-01</weightTrimRate>
    <maxDepth>1</maxDepth>
    <maxWeakCount>100</maxWeakCount></stageParams>
  <featureParams>
    <maxCatCount>0</maxCatCount>
    <featSize>1</featSize>
    <mode>BASIC</mode></featureParams>
  <stageNum>25</stageNum>
  <stages>
    <!-- stage 0 -->
    <_>
      <maxWeakCount>1</maxWeakCount>
      <stageThreshold>8.8405799865722656e-01</stageThreshold>
      <weakClassifiers>
        <_>
          <internalNodes>
            0 -1 3 -8.8309288024902344e-01</internalNodes>
          <leafValues>
            8.8405799865722656e-01 -1.</leafValues></_></weakClassifiers></_>
    <!-- stage 1 -->
    <_>
      <maxWeakCount>2</maxWeakCount>
      <stageThreshold>-2.6540007442235947e-02</stageThreshold>
      <weakClassifiers>
        <_>
          <internalNodes>
            0 -1 59 -6.1368835158646107e-03</internalNodes>
          <leafValues>
            -8.5000002384185791e-01 9.0769231319427490e-01</leafValues></_>
        <_>
          <internalNodes>
            0 -1 30 6.3919864594936371e-02</internalNodes>
          <leafValues>
            -8.1957560777664185e-01 8.2345998287200928e-01</leafValues></_></weakClassifiers></_>
    <!-- stage 2 -->
    <_>
      <maxWeakCount>2</maxWeakCount>
      <stageThreshold>1.1094953119754791e-01</stageThreshold>
      <weakClassifiers>
        <_>
          <internalNodes>
            0 -1 17 -3.4833505749702454e-02</internalNodes>
          <leafValues>
            8.4615385532379150e-01 -7.5000000000000000e-01</leafValues></_>
        <_>
          <internalNodes>
            0 -1 27 6.0961826238781214e-04</internalNodes>
          <leafValues>
            -6.9095855951309204e-01 8.6094951629638672e-01</leafValues></_></weakClassifiers></_>
    <!-- stage 3 -->
    <_>
      <maxWeakCount>2</maxWeakCount>
      <stageThreshold>2.0275563001632690e-01</stageThreshold>
      <weakClassifiers>
        <_>
          <internalNodes>
            0 -1 4 -2.1454909074236639e-05</internalNodes>
          <leafValues>
            7.6470589637756348e-01 -7.2972971200942993e-01</leafValues></_>
        <_>
          <internalNodes>
            0 -1 47 -4.9991162086371332e-05</internalNodes>
          <leafValues>
            9.3248534202575684e-01 -4.9445849657058716e-01</leafValues></_></weakClassifiers></_>
    <!-- stage 4 -->
    <_>
      <maxWeakCount>3</maxWeakCount>
      <stageThreshold>-3.0939087271690369e-01</stageThreshold>
      <weakClassifiers>
        <_>
          <internalNodes>
            0 -1 67 1.4569343999028206e-02</internalNodes>
          <leafValues>
            -6.4999997615814209e-01 7.8461539745330811e-01</leafValues></_>
        <_>
          <internalNodes>
            0 -1 54 -1.6512363217771053e-03</internalNodes>
          <leafValues>
            8.6651253700256348e-01 -4.8121464252471924e-01</leafValues></_>
        <_>
          <internalNodes>
            0 -1 48 3.5507042775861919e-04</internalNodes>
          <leafValues>
            -5.2590340375900269e-01 8.6704611778259277e-01</leafValues></_></weakClassifiers></_>
    <!-- stage 5 -->
    <_>
      <maxWeakCount>1</maxWeakCount>
      <stageThreshold>6.6666668653488159e-01</stageThreshold>
      <weakClassifiers>
        <_>
          <internalNodes>
            0 -1 9 1.3501390814781189e-01</internalNodes>
          <leafValues>
            6.6666668653488159e-01 -1.</leafValues></_></weakClassifiers></_>
    <!-- stage 6 -->
    <_>
      <maxWeakCount>2</maxWeakCount>
      <stageThreshold>-1.0824500024318695e-01</stageThreshold>
      <weakClassifiers>
        <_>
          <internalNodes>
            0 -1 11 -4.3057560920715332e-02</internalNodes>
          <leafValues>
            8.1818181276321411e-01 -7.4358975887298584e-01</leafValues></_>
        <_>
          <internalNodes>
            0 -1 14 -1.5949892997741699e-01</internalNodes>
          <leafValues>
            -9.2642682790756226e-01 6.8873000144958496e-01</leafValues></_></weakClassifiers></_>
    <!-- stage 7 -->
    <_>
      <maxWeakCount>1</maxWeakCount>
      <stageThreshold>6.2500000000000000e-01</stageThreshold>
      <weakClassifiers>
        <_>
          <internalNodes>
            0 -1 41 -6.9185961037874222e-03</internalNodes>
          <leafValues>
            -1. 6.2500000000000000e-01</leafValues></_></weakClassifiers></_>
    <!-- stage 8 -->
    <_>
      <maxWeakCount>1</maxWeakCount>
      <stageThreshold>5.2941179275512695e-01</stageThreshold>
      <weakClassifiers>
        <_>
          <internalNodes>
            0 -1 37 3.0147818848490715e-02</internalNodes>
          <leafValues>
            5.2941179275512695e-01 -1.</leafValues></_></weakClassifiers></_>
    <!-- stage 9 -->
    <_>
      <maxWeakCount>4</maxWeakCount>
      <stageThreshold>-3.9749333262443542e-01</stageThreshold>
      <weakClassifiers>
        <_>
          <internalNodes>
            0 -1 42 9.4486400485038757e-05</internalNodes>
          <leafValues>
            -4.0740740299224854e-01 9.2156863212585449e-01</leafValues></_>
        <_>
          <internalNodes>
            0 -1 2 -4.0725343860685825e-03</internalNodes>
          <leafValues>
            9.5493912696838379e-01 -3.3772394061088562e-01</leafValues></_>
        <_>
          <internalNodes>
            0 -1 49 -3.8642603904008865e-03</internalNodes>
          <leafValues>
            8.8696378469467163e-01 -4.6122238039970398e-01</leafValues></_>
        <_>
          <internalNodes>
            0 -1 57 3.1287479214370251e-03</internalNodes>
          <leafValues>
            -5.2011561393737793e-01 9.6298545598983765e-01</leafValues></_></weakClassifiers></_>
    <!-- stage 10 -->
    <_>
      <maxWeakCount>2</maxWeakCount>
      <stageThreshold>3.8612616062164307e-01</stageThreshold>
      <weakClassifiers>
        <_>
          <internalNodes>
            0 -1 15 -7.4773617088794708e-03</internalNodes>
          <leafValues>
            7.7777779102325439e-01 -5.7142859697341919e-01</leafValues></_>
        <_>
          <internalNodes>
            0 -1 56 6.0928789898753166e-03</internalNodes>
          <leafValues>
            -3.6148953437805176e-01 9.5755475759506226e-01</leafValues></_></weakClassifiers></_>
    <!-- stage 11 -->
    <_>
      <maxWeakCount>1</maxWeakCount>
      <stageThreshold>5.4761904478073120e-01</stageThreshold>
      <weakClassifiers>
        <_>
          <internalNodes>
            0 -1 21 -1.0241617262363434e-01</internalNodes>
          <leafValues>
            5.4761904478073120e-01 -1.</leafValues></_></weakClassifiers></_>
    <!-- stage 12 -->
    <_>
      <maxWeakCount>2</maxWeakCount>
      <stageThreshold>1.8567363917827606e-01</stageThreshold>
      <weakClassifiers>
        <_>
          <internalNodes>
            0 -1 33 -5.2713751792907715e-02</internalNodes>
          <leafValues>
            -6.4705884456634521e-01 6.6197180747985840e-01</leafValues></_>
        <_>
          <internalNodes>
            0 -1 65 2.2952854633331299e-03</internalNodes>
          <leafValues>
            -4.7629818320274353e-01 8.9723104238510132e-01</leafValues></_></weakClassifiers></_>
    <!-- stage 13 -->
    <_>
      <maxWeakCount>4</maxWeakCount>
      <stageThreshold>1.3692113757133484e-01</stageThreshold>
      <weakClassifiers>
        <_>
          <internalNodes>
            0 -1 8 -8.1117108464241028e-02</internalNodes>
          <leafValues>
            6.7647057771682739e-01 -5.6756758689880371e-01</leafValues></_>
        <_>
          <internalNodes>
            0 -1 12 -4.3901801109313965e-02</internalNodes>
          <leafValues>
            -8.7444221973419189e-01 4.6172726154327393e-01</leafValues></_>
        <_>
          <internalNodes>
            0 -1 26 -1.2335046194493771e-02</internalNodes>
          <leafValues>
            8.3501005172729492e-01 -4.6376812458038330e-01</leafValues></_>
        <_>
          <internalNodes>
            0 -1 45 3.4476557630114257e-04</internalNodes>
          <leafValues>
            -5.0011730194091797e-01 8.3547741174697876e-01</leafValues></_></weakClassifiers></_>
    <!-- stage 14 -->
    <_>
      <maxWeakCount>1</maxWeakCount>
      <stageThreshold>5.2941179275512695e-01</stageThreshold>
      <weakClassifiers>
        <_>
          <internalNodes>
            0 -1 13 -1.3738191127777100e-01</internalNodes>
          <leafValues>
            -1. 5.2941179275512695e-01</leafValues></_></weakClassifiers></_>
    <!-- stage 15 -->
    <_>
      <maxWeakCount>5</maxWeakCount>
      <stageThreshold>1.6624329611659050e-02</stageThreshold>
      <weakClassifiers>
        <_>
          <internalNodes>
            0 -1 68 6.1330513563007116e-04</internalNodes>
          <leafValues>
            -2.8571429848670959e-01 8.3673471212387085e-01</leafValues></_>
        <_>
          <internalNodes>
            0 -1 58 -6.7298643989488482e-04</internalNodes>
          <leafValues>
            7.7011460065841675e-01 -4.7243082523345947e-01</leafValues></_>
        <_>
          <internalNodes>
            0 -1 0 -6.8498412147164345e-03</internalNodes>
          <leafValues>
            5.6115406751632690e-01 -7.0893836021423340e-01</leafValues></_>
        <_>
          <internalNodes>
            0 -1 46 -5.9998972574248910e-04</internalNodes>
          <leafValues>
            9.4013643264770508e-01 -4.3472683429718018e-01</leafValues></_>
        <_>
          <internalNodes>
            0 -1 52 -1.3167655561119318e-03</internalNodes>
          <leafValues>
            8.3137881755828857e-01 -4.7410678863525391e-01</leafValues></_></weakClassifiers></_>
    <!-- stage 16 -->
    <_>
      <maxWeakCount>2</maxWeakCount>
      <stageThreshold>1.2926244735717773e-01</stageThreshold>
      <weakClassifiers>
        <_>
          <internalNodes>
            0 -1 40 1.8032170832157135e-02</internalNodes>
          <leafValues>
            -5.0000000000000000e-01 7.7049177885055542e-01</leafValues></_>
        <_>
          <internalNodes>
            0 -1 24 -2.4415686726570129e-02</internalNodes>
          <leafValues>
            6.5930479764938354e-01 -6.4122933149337769e-01</leafValues></_></weakClassifiers></_>
    <!-- stage 17 -->
    <_>
      <maxWeakCount>3</maxWeakCount>
      <stageThreshold>5.7103108614683151e-02</stageThreshold>
      <weakClassifiers>
        <_>
          <internalNodes>
            0 -1 29 2.3313215933740139e-03</internalNodes>
          <leafValues>
            -2.6666668057441711e-01 9.1111111640930176e-01</leafValues></_>
        <_>
          <internalNodes>
            0 -1 62 -2.7285263058729470e-04</internalNodes>
          <leafValues>
            1. -2.7710154652595520e-01</leafValues></_>
        <_>
          <internalNodes>
            0 -1 34 2.3471657186746597e-03</internalNodes>
          <leafValues>
            -5.7690644264221191e-01 7.0164895057678223e-01</leafValues></_></weakClassifiers></_>
    <!-- stage 18 -->
    <_>
      <maxWeakCount>3</maxWeakCount>
      <stageThreshold>-2.8307431936264038e-01</stageThreshold>
      <weakClassifiers>
        <_>
          <internalNodes>
            0 -1 1 4.0073215495795012e-04</internalNodes>
          <leafValues>
            5.3658539056777954e-01 -8.2608693838119507e-01</leafValues></_>
        <_>
          <internalNodes>
            0 -1 28 1.0394991841167212e-03</internalNodes>
          <leafValues>
            -4.1845336556434631e-01 8.6925601959228516e-01</leafValues></_>
        <_>
          <internalNodes>
            0 -1 39 2.5422598700970411e-03</internalNodes>
          <leafValues>
            -4.0120628476142883e-01 8.4210050106048584e-01</leafValues></_></weakClassifiers></_>
    <!-- stage 19 -->
    <_>
      <maxWeakCount>5</maxWeakCount>
      <stageThreshold>-1.5273015201091766e-01</stageThreshold>
      <weakClassifiers>
        <_>
          <internalNodes>
            0 -1 61 -2.0254228729754686e-03</internalNodes>
          <leafValues>
            8.0392158031463623e-01 -2.9629629850387573e-01</leafValues></_>
        <_>
          <internalNodes>
            0 -1 36 1.1218618601560593e-02</internalNodes>
          <leafValues>
            -7.0250898599624634e-01 4.9747848510742188e-01</leafValues></_>
        <_>
          <internalNodes>
            0 -1 10 -2.1505326032638550e-02</internalNodes>
          <leafValues>
            1. -2.9531410336494446e-01</leafValues></_>
        <_>
          <internalNodes>
            0 -1 18 1.4991690404713154e-03</internalNodes>
          <leafValues>
            -5.0846743583679199e-01 8.4182757139205933e-01</leafValues></_>
        <_>
          <internalNodes>
            0 -1 32 -3.6255303770303726e-02</internalNodes>
          <leafValues>
            -6.5034866333007813e-01 5.5140578746795654e-01</leafValues></_></weakClassifiers></_>
    <!-- stage 20 -->
    <_>
      <maxWeakCount>5</maxWeakCount>
      <stageThreshold>-1.0578029602766037e-01</stageThreshold>
      <weakClassifiers>
        <_>
          <internalNodes>
            0 -1 50 -8.5273683071136475e-02</internalNodes>
          <leafValues>
            -1.1428571492433548e-01 9.4285714626312256e-01</leafValues></_>
        <_>
          <internalNodes>
            0 -1 63 -3.2762747257947922e-02</internalNodes>
          <leafValues>
            3.4843438863754272e-01 -1.</leafValues></_>
        <_>
          <internalNodes>
            0 -1 53 -4.5551083981990814e-02</internalNodes>
          <leafValues>
            -4.5338216423988342e-01 7.3067420721054077e-01</leafValues></_>
        <_>
          <internalNodes>
            0 -1 38 1.6015248547773808e-04</internalNodes>
          <leafValues>
            -5.2771794795989990e-01 7.3941129446029663e-01</leafValues></_>
        <_>
          <internalNodes>
            0 -1 60 -5.3932301700115204e-02</internalNodes>
          <leafValues>
            -5.4288518428802490e-01 6.6810810565948486e-01</leafValues></_></weakClassifiers></_>
    <!-- stage 21 -->
    <_>
      <maxWeakCount>4</maxWeakCount>
      <stageThreshold>-8.1985563039779663e-01</stageThreshold>
      <weakClassifiers>
        <_>
          <internalNodes>
            0 -1 5 -1.2759127654135227e-02</internalNodes>
          <leafValues>
            7.1428573131561279e-01 -4.7619047760963440e-01</leafValues></_>
        <_>
          <internalNodes>
            0 -1 7 -1.1980548501014709e-01</internalNodes>
          <leafValues>
            5.8940392732620239e-01 -5.1728183031082153e-01</leafValues></_>
        <_>
          <internalNodes>
            0 -1 23 8.9296624064445496e-03</internalNodes>
          <leafValues>
            -6.0131609439849854e-01 6.2288564443588257e-01</leafValues></_>
        <_>
          <internalNodes>
            0 -1 19 2.2980675566941500e-04</internalNodes>
          <leafValues>
            -4.4926899671554565e-01 7.2718745470046997e-01</leafValues></_></weakClassifiers></_>
    <!-- stage 22 -->
    <_>
      <maxWeakCount>4</maxWeakCount>
      <stageThreshold>-3.9180147647857666e-01</stageThreshold>
      <weakClassifiers>
        <_>
          <internalNodes>
            0 -1 25 -2.0533559843897820e-02</internalNodes>
          <leafValues>
            7.1428573131561279e-01 -3.0612245202064514e-01</leafValues></_>
        <_>
          <internalNodes>
            0 -1 6 -4.9700615927577019e-03</internalNodes>
          <leafValues>
            9.4431668519973755e-01 -3.0461058020591736e-01</leafValues></_>
        <_>
          <internalNodes>
            0 -1 16 -1.4446396380662918e-03</internalNodes>
          <leafValues>
            7.5376319885253906e-01 -4.1168916225433350e-01</leafValues></_>
        <_>
          <internalNodes>
            0 -1 64 -2.6942063122987747e-02</internalNodes>
          <leafValues>
            7.4152767658233643e-01 -5.3483164310455322e-01</leafValues></_></weakClassifiers></_>
    <!-- stage 23 -->
    <_>
      <maxWeakCount>5</maxWeakCount>
      <stageThreshold>7.2577893733978271e-02</stageThreshold>
      <weakClassifiers>
        <_>
          <internalNodes>
            0 -1 20 -6.3408866524696350e-02</internalNodes>
          <leafValues>
            6.5625000000000000e-01 -4.1463413834571838e-01</leafValues></_>
        <_>
          <internalNodes>
            0 -1 43 -1.9075756892561913e-02</internalNodes>
          <leafValues>
            -3.3386623859405518e-01 7.8312027454376221e-01</leafValues></_>
        <_>
          <internalNodes>
            0 -1 55 -5.2805128507316113e-04</internalNodes>
          <leafValues>
            8.1722426414489746e-01 -3.6127918958663940e-01</leafValues></_>
        <_>
          <internalNodes>
            0 -1 44 -1.9271385099273175e-04</internalNodes>
          <leafValues>
            9.6223080158233643e-01 -3.7488812208175659e-01</leafValues></_>
        <_>
          <internalNodes>
            0 -1 22 -1.6693459474481642e-04</internalNodes>
          <leafValues>
            -6.3062506914138794e-01 6.0329860448837280e-01</leafValues></_></weakClassifiers></_>
    <!-- stage 24 -->
    <_>
      <maxWeakCount>5</maxWeakCount>
      <stageThreshold>9.0539060533046722e-02</stageThreshold>
      <weakClassifiers>
        <_>
          <internalNodes>
            0 -1 31 -3.4318375401198864e-04</internalNodes>
          <leafValues>
            -8.9473682641983032e-01 4.8837208747863770e-01</leafValues></_>
        <_>
          <internalNodes>
            0 -1 65 3.4461393952369690e-03</internalNodes>
          <leafValues>
            -4.2605927586555481e-01 8.4970599412918091e-01</leafValues></_>
        <_>
          <internalNodes>
            0 -1 66 3.2382935751229525e-03</internalNodes>
          <leafValues>
            -3.5074791312217712e-01 9.0502220392227173e-01</leafValues></_>
        <_>
          <internalNodes>
            0 -1 51 3.1093941070139408e-03</internalNodes>
          <leafValues>
            -3.8802319765090942e-01 8.5539066791534424e-01</leafValues></_>
        <_>
          <internalNodes>
            0 -1 35 -1.8811123445630074e-03</internalNodes>
          <leafValues>
            9.3529498577117920e-01 -3.6907282471656799e-01</leafValues></_></weakClassifiers></_></stages>
  <features>
    <_>
      <rects>
        <_>
          0 0 1 3 -1.</_>
        <_>
          0 1 1 1 2.</_></rects>
      <tilted>0</tilted></_>
    <_>
      <rects>
        <_>
          0 0 1 4 -1.</_>
        <_>
          0 2 1 2 2.</_></rects>
      <tilted>0</tilted></_>
    <_>
      <rects>
        <_>
          0 0 2 18 -1.</_>
        <_>
          1 0 1 18 2.</_></rects>
      <tilted>0</tilted></_>
    <_>
      <rects>
        <_>
          0 0 24 24 -1.</_>
        <_>
          0 8 24 8 2.</_></rects>
      <tilted>0</tilted></_>
    <_>
      <rects>
        <_>
          0 1 6 1 -1.</_>
        <_>
          3 1 3 1 2.</_></rects>
      <tilted>0</tilted></_>
    <_>
      <rects>
        <_>
          0 1 14 12 -1.</_>
        <_>
          0 7 14 6 2.</_></rects>
      <tilted>0</tilted></_>
    <_>
      <rects>
        <_>
          0 3 2 9 -1.</_>
        <_>
          1 3 1 9 2.</_></rects>
      <tilted>0</tilted></_>
    <_>
      <rects>
        <_>
          0 4 12 18 -1.</_>
        <_>
          6 4 6 18 2.</_></rects>
      <tilted>0</tilted></_>
    <_>
      <rects>
        <_>
          0 5 14 14 -1.</_>
        <_>
          7 5 7 14 2.</_></rects>
      <tilted>0</tilted></_>
    <_>
      <rects>
        <_>
          0 5 24 12 -1.</_>
        <_>
          0 11 24 6 2.</_></rects>
      <tilted>0</tilted></_>
    <_>
      <rects>
        <_>
          0 6 4 10 -1.</_>
        <_>
          2 6 2 10 2.</_></rects>
      <tilted>0</tilted></_>
    <_>
      <rects>
        <_>
          0 7 12 12 -1.</_>
        <_>
          6 7 6 12 2.</_></rects>
      <tilted>0</tilted></_>
    <_>
      <rects>
        <_>
          0 8 18 2 -1.</_>
        <_>
          9 8 9 2 2.</_></rects>
      <tilted>0</tilted></_>
    <_>
      <rects>
        <_>
          0 9 20 7 -1.</_>
        <_>
          10 9 10 7 2.</_></rects>
      <tilted>0</tilted></_>
    <_>
      <rects>
        <_>
          0 11 6 9 -1.</_>
        <_>
          0 14 6 3 2.</_></rects>
      <tilted>0</tilted></_>
    <_>
      <rects>
        <_>
          0 21 1 3 -1.</_>
        <_>
          0 22 1 1 2.</_></rects>
      <tilted>0</tilted></_>
    <_>
      <rects>
        <_>
          1 5 2 10 -1.</_>
        <_>
          1 5 1 5 2.</_>
        <_>
          2 10 1 5 2.</_></rects>
      <tilted>0</tilted></_>
    <_>
      <rects>
        <_>
          1 5 12 14 -1.</_>
        <_>
          7 5 6 14 2.</_></rects>
      <tilted>0</tilted></_>
    <_>
      <rects>
        <_>
          1 6 2 5 -1.</_>
        <_>
          2 6 1 5 2.</_></rects>
      <tilted>0</tilted></_>
    <_>
      <rects>
        <_>
          2 13 2 4 -1.</_>
        <_>
          3 13 1 4 2.</_></rects>
      <tilted>0</tilted></_>
    <_>
      <rects>
        <_>
          3 0 8 18 -1.</_>
        <_>
          7 0 4 18 2.</_></rects>
      <tilted>0</tilted></_>
    <_>
      <rects>
        <_>
          3 6 9 10 -1.</_>
        <_>
          6 6 3 10 2.</_></rects>
      <tilted>0</tilted></_>
    <_>
      <rects>
        <_>
          3 8 1 2 -1.</_>
        <_>
          3 9 1 1 2.</_></rects>
      <tilted>0</tilted></_>
    <_>
      <rects>
        <_>
          3 13 6 6 -1.</_>
        <_>
          3 16 6 3 2.</_></rects>
      <tilted>0</tilted></_>
    <_>
      <rects>
        <_>
          4 7 20 4 -1.</_>
        <_>
          14 7 10 4 2.</_></rects>
      <tilted>0</tilted></_>
    <_>
      <rects>
        <_>
          5 3 6 14 -1.</_>
        <_>
          8 3 3 14 2.</_></rects>
      <tilted>0</tilted></_>
    <_>
      <rects>
        <_>
          5 12 4 7 -1.</_>
        <_>
          7 12 2 7 2.</_></rects>
      <tilted>0</tilted></_>
    <_>
      <rects>
        <_>
          5 15 2 4 -1.</_>
        <_>
          5 17 2 2 2.</_></rects>
      <tilted>0</tilted></_>
    <_>
      <rects>
        <_>
          5 17 2 6 -1.</_>
        <_>
          5 17 1 3 2.</_>
        <_>
          6 20 1 3 2.</_></rects>
      <tilted>0</tilted></_>
    <_>
      <rects>
        <_>
          5 18 4 6 -1.</_>
        <_>
          5 18 2 3 2.</_>
        <_>
          7 21 2 3 2.</_></rects>
      <tilted>0</tilted></_>
    <_>
      <rects>
        <_>
          6 7 18 16 -1.</_>
        <_>
          6 15 18 8 2.</_></rects>
      <tilted>0</tilted></_>
    <_>
      <rects>
        <_>
          7 6 3 18 -1.</_>
        <_>
          7 15 3 9 2.</_></rects>
      <tilted>0</tilted></_>
    <_>
      <rects>
        <_>
          7 8 16 16 -1.</_>
        <_>
          7 8 8 8 2.</_>
        <_>
          15 16 8 8 2.</_></rects>
      <tilted>0</tilted></_>
    <_>
      <rects>
        <_>
          7 12 4 6 -1.</_>
        <_>
          7 14 4 2 2.</_></rects>
      <tilted>0</tilted></_>
    <_>
      <rects>
        <_>
          7 13 4 4 -1.</_>
        <_>
          7 15 4 2 2.</_></rects>
      <tilted>0</tilted></_>
    <_>
      <rects>
        <_>
          8 5 2 10 -1.</_>
        <_>
          8 5 1 5 2.</_>
        <_>
          9 10 1 5 2.</_></rects>
      <tilted>0</tilted></_>
    <_>
      <rects>
        <_>
          8 6 9 16 -1.</_>
        <_>
          8 14 9 8 2.</_></rects>
      <tilted>0</tilted></_>
    <_>
      <rects>
        <_>
          9 5 14 5 -1.</_>
        <_>
          16 5 7 5 2.</_></rects>
      <tilted>0</tilted></_>
    <_>
      <rects>
        <_>
          9 12 2 1 -1.</_>
        <_>
          10 12 1 1 2.</_></rects>
      <tilted>0</tilted></_>
    <_>
      <rects>
        <_>
          9 12 4 2 -1.</_>
        <_>
          11 12 2 2 2.</_></rects>
      <tilted>0</tilted></_>
    <_>
      <rects>
        <_>
          9 15 14 6 -1.</_>
        <_>
          9 18 14 3 2.</_></rects>
      <tilted>0</tilted></_>
    <_>
      <rects>
        <_>
          10 4 3 1 -1.</_>
        <_>
          11 4 1 1 2.</_></rects>
      <tilted>0</tilted></_>
    <_>
      <rects>
        <_>
          10 10 2 3 -1.</_>
        <_>
          11 10 1 3 2.</_></rects>
      <tilted>0</tilted></_>
    <_>
      <rects>
        <_>
          10 18 12 1 -1.</_>
        <_>
          14 18 4 1 2.</_></rects>
      <tilted>0</tilted></_>
    <_>
      <rects>
        <_>
          11 3 2 4 -1.</_>
        <_>
          11 3 1 2 2.</_>
        <_>
          12 5 1 2 2.</_></rects>
      <tilted>0</tilted></_>
    <_>
      <rects>
        <_>
          11 17 4 2 -1.</_>
        <_>
          11 17 2 1 2.</_>
        <_>
          13 18 2 1 2.</_></rects>
      <tilted>0</tilted></_>
    <_>
      <rects>
        <_>
          12 17 4 1 -1.</_>
        <_>
          14 17 2 1 2.</_></rects>
      <tilted>0</tilted></_>
    <_>
      <rects>
        <_>
          12 21 2 1 -1.</_>
        <_>
          13 21 1 1 2.</_></rects>
      <tilted>0</tilted></_>
    <_>
      <rects>
        <_>
          14 11 1 4 -1.</_>
        <_>
          14 13 1 2 2.</_></rects>
      <tilted>0</tilted></_>
    <_>
      <rects>
        <_>
          14 17 8 2 -1.</_>
        <_>
          18 17 4 2 2.</_></rects>
      <tilted>0</tilted></_>
    <_>
      <rects>
        <_>
          15 5 9 9 -1.</_>
        <_>
          18 5 3 9 2.</_></rects>
      <tilted>0</tilted></_>
    <_>
      <rects>
        <_>
          15 13 4 4 -1.</_>
        <_>
          15 15 4 2 2.</_></rects>
      <tilted>0</tilted></_>
    <_>
      <rects>
        <_>
          18 0 6 4 -1.</_>
        <_>
          18 0 3 2 2.</_>
        <_>
          21 2 3 2 2.</_></rects>
      <tilted>0</tilted></_>
    <_>
      <rects>
        <_>
          18 4 6 6 -1.</_>
        <_>
          20 4 2 6 2.</_></rects>
      <tilted>0</tilted></_>
    <_>
      <rects>
        <_>
          18 5 6 2 -1.</_>
        <_>
          21 5 3 2 2.</_></rects>
      <tilted>0</tilted></_>
    <_>
      <rects>
        <_>
          19 0 4 2 -1.</_>
        <_>
          19 0 2 1 2.</_>
        <_>
          21 1 2 1 2.</_></rects>
      <tilted>0</tilted></_>
    <_>
      <rects>
        <_>
          19 1 3 8 -1.</_>
        <_>
          19 5 3 4 2.</_></rects>
      <tilted>0</tilted></_>
    <_>
      <rects>
        <_>
          19 3 3 10 -1.</_>
        <_>
          19 8 3 5 2.</_></rects>
      <tilted>0</tilted></_>
    <_>
      <rects>
        <_>
          19 6 4 1 -1.</_>
        <_>
          21 6 2 1 2.</_></rects>
      <tilted>0</tilted></_>
    <_>
      <rects>
        <_>
          19 9 3 1 -1.</_>
        <_>
          20 9 1 1 2.</_></rects>
      <tilted>0</tilted></_>
    <_>
      <rects>
        <_>
          20 6 2 15 -1.</_>
        <_>
          20 11 2 5 2.</_></rects>
      <tilted>0</tilted></_>
    <_>
      <rects>
        <_>
          20 9 4 4 -1.</_>
        <_>
          22 9 2 4 2.</_></rects>
      <tilted>0</tilted></_>
    <_>
      <rects>
        <_>
          20 16 2 1 -1.</_>
        <_>
          21 16 1 1 2.</_></rects>
      <tilted>0</tilted></_>
    <_>
      <rects>
        <_>
          21 15 3 9 -1.</_>
        <_>
          21 18 3 3 2.</_></rects>
      <tilted>0</tilted></_>
    <_>
      <rects>
        <_>
          21 20 3 4 -1.</_>
        <_>
          22 20 1 4 2.</_></rects>
      <tilted>0</tilted></_>
    <_>
      <rects>
        <_>
          22 8 2 12 -1.</_>
        <_>
          22 8 1 6 2.</_>
        <_>
          23 14 1 6 2.</_></rects>
      <tilted>0</tilted></_>
    <_>
      <rects>
        <_>
          22 8 2 8 -1.</_>
        <_>
          23 8 1 8 2.</_></rects>
      <tilted>0</tilted></_>
    <_>
      <rects>
        <_>
          22 8 2 16 -1.</_>
        <_>
          22 16 2 8 2.</_></rects>
      <tilted>0</tilted></_>
    <_>
      <rects>
        <_>
          22 16 2 7 -1.</_>
        <_>
          23 16 1 7 2.</_></rects>
      <tilted>0</tilted></_></features></cascade>
</opencv_storage>
