<?xml version="1.0"?>
<opencv_storage>
<stage20>
  <maxWeakCount>5</maxWeakCount>
  <stageThreshold>-1.0578029602766037e-01</stageThreshold>
  <weakClassifiers>
    <_>
      <internalNodes>
        0 -1 141187 -8.5273683071136475e-02</internalNodes>
      <leafValues>
        -1.1428571492433548e-01 9.4285714626312256e-01</leafValues></_>
    <_>
      <internalNodes>
        0 -1 161019 -3.2762747257947922e-02</internalNodes>
      <leafValues>
        3.4843438863754272e-01 -1.</leafValues></_>
    <_>
      <internalNodes>
        0 -1 152997 -4.5551083981990814e-02</internalNodes>
      <leafValues>
        -4.5338216423988342e-01 7.3067420721054077e-01</leafValues></_>
    <_>
      <internalNodes>
        0 -1 104742 1.6015248547773808e-04</internalNodes>
      <leafValues>
        -5.2771794795989990e-01 7.3941129446029663e-01</leafValues></_>
    <_>
      <internalNodes>
        0 -1 158607 -5.3932301700115204e-02</internalNodes>
      <leafValues>
        -5.4288518428802490e-01 6.6810810565948486e-01</leafValues></_></weakClassifiers></stage20>
</opencv_storage>
