<?xml version="1.0"?>
<opencv_storage>
<stage15>
  <maxWeakCount>5</maxWeakCount>
  <stageThreshold>1.6624329611659050e-02</stageThreshold>
  <weakClassifiers>
    <_>
      <internalNodes>
        0 -1 162014 6.1330513563007116e-04</internalNodes>
      <leafValues>
        -2.8571429848670959e-01 8.3673471212387085e-01</leafValues></_>
    <_>
      <internalNodes>
        0 -1 156325 -6.7298643989488482e-04</internalNodes>
      <leafValues>
        7.7011460065841675e-01 -4.7243082523345947e-01</leafValues></_>
    <_>
      <internalNodes>
        0 -1 3 -6.8498412147164345e-03</internalNodes>
      <leafValues>
        5.6115406751632690e-01 -7.0893836021423340e-01</leafValues></_>
    <_>
      <internalNodes>
        0 -1 127482 -5.9998972574248910e-04</internalNodes>
      <leafValues>
        9.4013643264770508e-01 -4.3472683429718018e-01</leafValues></_>
    <_>
      <internalNodes>
        0 -1 152051 -1.3167655561119318e-03</internalNodes>
      <leafValues>
        8.3137881755828857e-01 -4.7410678863525391e-01</leafValues></_></weakClassifiers></stage15>
</opencv_storage>
